FANN_FLO_2.1
num_layers=3
learning_rate=0,700000
connection_rate=1,000000
network_type=0
learning_momentum=0,000000
training_algorithm=2
train_error_function=1
train_stop_function=0
cascade_output_change_fraction=0,010000
quickprop_decay=-0,000100
quickprop_mu=1,750000
rprop_increase_factor=1,200000
rprop_decrease_factor=0,500000
rprop_delta_min=0,000000
rprop_delta_max=50,000000
rprop_delta_zero=0,100000
cascade_output_stagnation_epochs=12
cascade_candidate_change_fraction=0,010000
cascade_candidate_stagnation_epochs=12
cascade_max_out_epochs=150
cascade_min_out_epochs=50
cascade_max_cand_epochs=150
cascade_min_cand_epochs=50
cascade_num_candidate_groups=2
bit_fail_limit=3,49999994039535522461e-01
cascade_candidate_limit=1,00000000000000000000e+03
cascade_weight_multiplier=4,00000005960464477539e-01
cascade_activation_functions_count=10
cascade_activation_functions=3 5 7 8 10 11 14 15 16 17 
cascade_activation_steepnesses_count=4
cascade_activation_steepnesses=2,50000000000000000000e-01 5,00000000000000000000e-01 7,50000000000000000000e-01 1,00000000000000000000e+00 
layer_sizes=3 61 2 
scale_included=0
neurons (num_inputs, activation_function, activation_steepness)=(0, 0, 0,00000000000000000000e+00) (0, 0, 0,00000000000000000000e+00) (0, 0, 0,00000000000000000000e+00) (3, 5, 5,00000000000000000000e-01) (3, 5, 5,00000000000000000000e-01) (3, 5, 5,00000000000000000000e-01) (3, 5, 5,00000000000000000000e-01) (3, 5, 5,00000000000000000000e-01) (3, 5, 5,00000000000000000000e-01) (3, 5, 5,00000000000000000000e-01) (3, 5, 5,00000000000000000000e-01) (3, 5, 5,00000000000000000000e-01) (3, 5, 5,00000000000000000000e-01) (3, 5, 5,00000000000000000000e-01) (3, 5, 5,00000000000000000000e-01) (3, 5, 5,00000000000000000000e-01) (3, 5, 5,00000000000000000000e-01) (3, 5, 5,00000000000000000000e-01) (3, 5, 5,00000000000000000000e-01) (3, 5, 5,00000000000000000000e-01) (3, 5, 5,00000000000000000000e-01) (3, 5, 5,00000000000000000000e-01) (3, 5, 5,00000000000000000000e-01) (3, 5, 5,00000000000000000000e-01) (3, 5, 5,00000000000000000000e-01) (3, 5, 5,00000000000000000000e-01) (3, 5, 5,00000000000000000000e-01) (3, 5, 5,00000000000000000000e-01) (3, 5, 5,00000000000000000000e-01) (3, 5, 5,00000000000000000000e-01) (3, 5, 5,00000000000000000000e-01) (3, 5, 5,00000000000000000000e-01) (3, 5, 5,00000000000000000000e-01) (3, 5, 5,00000000000000000000e-01) (3, 5, 5,00000000000000000000e-01) (3, 5, 5,00000000000000000000e-01) (3, 5, 5,00000000000000000000e-01) (3, 5, 5,00000000000000000000e-01) (3, 5, 5,00000000000000000000e-01) (3, 5, 5,00000000000000000000e-01) (3, 5, 5,00000000000000000000e-01) (3, 5, 5,00000000000000000000e-01) (3, 5, 5,00000000000000000000e-01) (3, 5, 5,00000000000000000000e-01) (3, 5, 5,00000000000000000000e-01) (3, 5, 5,00000000000000000000e-01) (3, 5, 5,00000000000000000000e-01) (3, 5, 5,00000000000000000000e-01) (3, 5, 5,00000000000000000000e-01) (3, 5, 5,00000000000000000000e-01) (3, 5, 5,00000000000000000000e-01) (3, 5, 5,00000000000000000000e-01) (3, 5, 5,00000000000000000000e-01) (3, 5, 5,00000000000000000000e-01) (3, 5, 5,00000000000000000000e-01) (3, 5, 5,00000000000000000000e-01) (3, 5, 5,00000000000000000000e-01) (3, 5, 5,00000000000000000000e-01) (3, 5, 5,00000000000000000000e-01) (3, 5, 5,00000000000000000000e-01) (3, 5, 5,00000000000000000000e-01) (3, 5, 5,00000000000000000000e-01) (3, 5, 5,00000000000000000000e-01) (0, 5, 0,00000000000000000000e+00) (61, 5, 5,00000000000000000000e-01) (0, 5, 0,00000000000000000000e+00) 
connections (connected_to_neuron, weight)=(0, 2,85298395901918411255e-02) (1, 8,07226955890655517578e-01) (2, -1,65491864085197448730e-01) (0, 3,39938551187515258789e-01) (1, 1,66777089238166809082e-01) (2, 6,02826237678527832031e-01) (0, -9,13700312376022338867e-02) (1, 1,25171244144439697266e-01) (2, -1,47329851984977722168e-01) (0, 1,26201966777443885803e-02) (1, 6,85221791267395019531e-01) (2, -1,29613548517227172852e-01) (0, 4,15757030248641967773e-01) (1, -3,28970134258270263672e-01) (2, 4,34444248676300048828e-01) (0, -1,97038829326629638672e-01) (1, 2,37919166684150695801e-01) (2, -1,74251422286033630371e-01) (0, 4,41206336021423339844e-01) (1, -2,56559520959854125977e-01) (2, 4,58946168422698974609e-01) (0, 3,52412045001983642578e-01) (1, 1,97099894285202026367e-01) (2, 5,54159998893737792969e-01) (0, 4,39025551080703735352e-01) (1, 8,90813022851943969727e-02) (2, 5,61103343963623046875e-01) (0, 4,50944006443023681641e-01) (1, 2,07045242190361022949e-01) (2, 5,61810970306396484375e-01) (0, 3,38863074779510498047e-01) (1, 1,22475594282150268555e-01) (2, 5,40561437606811523438e-01) (0, -1,97131484746932983398e-01) (1, 2,02806070446968078613e-01) (2, -1,70406952500343322754e-01) (0, 2,71990913897752761841e-02) (1, 6,95559978485107421875e-01) (2, -1,47952154278755187988e-01) (0, 3,89816999435424804688e-01) (1, 2,00135990977287292480e-01) (2, 5,96035659313201904297e-01) (0, 4,64851856231689453125e-01) (1, -3,40488493442535400391e-01) (2, 4,46417391300201416016e-01) (0, 4,25764262676239013672e-01) (1, -3,22192490100860595703e-01) (2, 4,24649059772491455078e-01) (0, -1,36638060212135314941e-01) (1, 8,13517868518829345703e-02) (2, -2,29975804686546325684e-01) (0, 3,49874824285507202148e-01) (1, 1,21844545006752014160e-01) (2, 5,77805817127227783203e-01) (0, 4,21440720558166503906e-01) (1, -3,71175587177276611328e-01) (2, 3,99957060813903808594e-01) (0, -4,98204678297042846680e-02) (1, 1,03115603327751159668e-01) (2, -2,37344980239868164062e-01) (0, -1,94939523935317993164e-01) (1, 1,06498345732688903809e-01) (2, -1,48401275277137756348e-01) (0, 3,11722278594970703125e-01) (1, -3,47735822200775146484e-01) (2, 4,05532717704772949219e-01) (0, -1,94431513547897338867e-01) (1, 2,38801345229148864746e-01) (2, -1,38199284672737121582e-01) (0, 3,63363295793533325195e-01) (1, -3,29582929611206054688e-01) (2, 4,39220249652862548828e-01) (0, 4,28132981061935424805e-01) (1, 7,14512839913368225098e-02) (2, 5,44879972934722900391e-01) (0, 4,25354450941085815430e-01) (1, -2,59165972471237182617e-01) (2, 4,02039349079132080078e-01) (0, -1,48962795734405517578e-01) (1, 9,19683575630187988281e-02) (2, -1,87111750245094299316e-01) (0, 8,67792516946792602539e-02) (1, 7,24868595600128173828e-01) (2, -1,41828045248985290527e-01) (0, 3,02251070737838745117e-01) (1, -4,05016958713531494141e-01) (2, 3,53590846061706542969e-01) (0, 4,56744343042373657227e-01) (1, 2,06779375672340393066e-01) (2, 6,30417168140411376953e-01) (0, -1,44415646791458129883e-01) (1, 2,53330349922180175781e-01) (2, -1,66985556483268737793e-01) (0, 3,45565170049667358398e-01) (1, 8,12014490365982055664e-02) (2, 5,42242288589477539062e-01) (0, 4,77566033601760864258e-01) (1, 1,02104768157005310059e-01) (2, 5,21356165409088134766e-01) (0, 1,03986069560050964355e-01) (1, 7,50313103199005126953e-01) (2, -8,27192962169647216797e-02) (0, 4,66674566268920898438e-01) (1, -3,48544180393218994141e-01) (2, 4,09044504165649414062e-01) (0, 1,07624381780624389648e-01) (1, 8,07937264442443847656e-01) (2, -9,12157893180847167969e-02) (0, 4,33131992816925048828e-01) (1, -3,66917312145233154297e-01) (2, 3,94909501075744628906e-01) (0, 3,58967870473861694336e-01) (1, 5,30444085597991943359e-02) (2, 5,24699687957763671875e-01) (0, 2,47881580144166946411e-02) (1, 6,92544579505920410156e-01) (2, -1,54809728264808654785e-01) (0, 5,01847267150878906250e-01) (1, -3,77701342105865478516e-01) (2, 4,72282171249389648438e-01) (0, 4,25334393978118896484e-01) (1, -3,06782126426696777344e-01) (2, 4,65925037860870361328e-01) (0, -9,98637378215789794922e-02) (1, 7,94245958328247070312e-01) (2, -1,40249803662300109863e-01) (0, 4,06608760356903076172e-01) (1, 1,91103637218475341797e-01) (2, 6,15565657615661621094e-01) (0, 4,21034842729568481445e-01) (1, 1,81990206241607666016e-01) (2, 5,37402272224426269531e-01) (0, 3,18628102540969848633e-01) (1, 1,38565182685852050781e-01) (2, 6,01608097553253173828e-01) (0, 8,14765840768814086914e-02) (1, 7,28034734725952148438e-01) (2, -1,06173723936080932617e-01) (0, -1,57861024141311645508e-01) (1, 8,22780579328536987305e-02) (2, -2,17311963438987731934e-01) (0, -3,64833883941173553467e-02) (1, 1,55482277274131774902e-01) (2, -1,97799399495124816895e-01) (0, 1,09720602631568908691e-01) (1, 6,35959982872009277344e-01) (2, -1,76760300993919372559e-01) (0, 4,71214294433593750000e-01) (1, 2,32762977480888366699e-01) (2, 5,45530974864959716797e-01) (0, -1,94460660219192504883e-01) (1, 1,74153417348861694336e-01) (2, -1,92714676260948181152e-01) (0, 2,99031049013137817383e-01) (1, 2,33530580997467041016e-01) (2, 6,17268323898315429688e-01) (0, 3,39093774557113647461e-01) (1, 1,54375657439231872559e-01) (2, 5,74840128421783447266e-01) (0, 4,47729378938674926758e-01) (1, 8,96468460559844970703e-02) (2, 5,23298442363739013672e-01) (0, 5,02537488937377929688e-01) (1, -3,23770701885223388672e-01) (2, 3,94933581352233886719e-01) (0, 2,15455889701843261719e-04) (1, 6,85832977294921875000e-01) (2, -1,59352585673332214355e-01) (0, 7,43542760610580444336e-02) (1, 7,43306815624237060547e-01) (2, -1,36761978268623352051e-01) (0, -1,34108468890190124512e-01) (1, 1,53369233012199401855e-01) (2, -1,97938278317451477051e-01) (0, 2,78406053781509399414e-01) (1, -3,22447240352630615234e-01) (2, 4,20360624790191650391e-01) (0, 2,81958252191543579102e-01) (1, -3,00323307514190673828e-01) (2, 4,19591724872589111328e-01) (3, -1,17448896169662475586e-01) (4, -2,03982576727867126465e-01) (5, 5,67455828189849853516e-01) (6, -1,72880008816719055176e-01) (7, 4,20100152492523193359e-01) (8, 5,67454516887664794922e-01) (9, 3,91302645206451416016e-01) (10, -1,37385204434394836426e-01) (11, -1,55915275216102600098e-01) (12, -1,51602700352668762207e-01) (13, -1,75419494509696960449e-01) (14, 5,44413268566131591797e-01) (15, -1,78263232111930847168e-01) (16, -1,82981625199317932129e-01) (17, 3,99994492530822753906e-01) (18, 3,96982908248901367188e-01) (19, 5,48347949981689453125e-01) (20, -1,53464511036872863770e-01) (21, 4,17942821979522705078e-01) (22, 5,09602725505828857422e-01) (23, 6,05579376220703125000e-01) (24, 4,61493372917175292969e-01) (25, 5,90829074382781982422e-01) (26, 4,65862929821014404297e-01) (27, -2,09976777434349060059e-01) (28, 3,78141403198242187500e-01) (29, 5,89563906192779541016e-01) (30, -1,06177031993865966797e-01) (31, 4,02404129505157470703e-01) (32, -1,42222896218299865723e-01) (33, 5,27125418186187744141e-01) (34, -1,45547702908515930176e-01) (35, -2,08921954035758972168e-01) (36, -9,95914340019226074219e-02) (37, 4,72700238227844238281e-01) (38, -1,05382651090621948242e-01) (39, 4,14777457714080810547e-01) (40, -2,20344349741935729980e-01) (41, -1,05484306812286376953e-01) (42, 3,96145701408386230469e-01) (43, 3,76151919364929199219e-01) (44, -1,43620237708091735840e-01) (45, -1,77186504006385803223e-01) (46, -2,32614219188690185547e-01) (47, -1,46289363503456115723e-01) (48, -9,37528610229492187500e-02) (49, 5,35050392150878906250e-01) (50, 5,39342164993286132812e-01) (51, -1,09933793544769287109e-01) (52, -1,64752259850502014160e-01) (53, 5,42014837265014648438e-01) (54, -1,68255493044853210449e-01) (55, -1,76790788769721984863e-01) (56, -2,18299731612205505371e-01) (57, 4,34890985488891601562e-01) (58, -9,25129652023315429688e-02) (59, -1,56719163060188293457e-01) (60, 5,50923049449920654297e-01) (61, 4,35466945171356201172e-01) (62, 4,25997436046600341797e-01) (63, 3,12585532665252685547e-01) 
