FANN_FLO_2.1
num_layers=3
learning_rate=0,700000
connection_rate=1,000000
network_type=0
learning_momentum=0,000000
training_algorithm=2
train_error_function=1
train_stop_function=0
cascade_output_change_fraction=0,010000
quickprop_decay=-0,000100
quickprop_mu=1,750000
rprop_increase_factor=1,200000
rprop_decrease_factor=0,500000
rprop_delta_min=0,000000
rprop_delta_max=50,000000
rprop_delta_zero=0,100000
cascade_output_stagnation_epochs=12
cascade_candidate_change_fraction=0,010000
cascade_candidate_stagnation_epochs=12
cascade_max_out_epochs=150
cascade_min_out_epochs=50
cascade_max_cand_epochs=150
cascade_min_cand_epochs=50
cascade_num_candidate_groups=2
bit_fail_limit=3,49999994039535522461e-01
cascade_candidate_limit=1,00000000000000000000e+03
cascade_weight_multiplier=4,00000005960464477539e-01
cascade_activation_functions_count=10
cascade_activation_functions=3 5 7 8 10 11 14 15 16 17 
cascade_activation_steepnesses_count=4
cascade_activation_steepnesses=2,50000000000000000000e-01 5,00000000000000000000e-01 7,50000000000000000000e-01 1,00000000000000000000e+00 
layer_sizes=4 30 2 
scale_included=0
neurons (num_inputs, activation_function, activation_steepness)=(0, 0, 0,00000000000000000000e+00) (0, 0, 0,00000000000000000000e+00) (0, 0, 0,00000000000000000000e+00) (0, 0, 0,00000000000000000000e+00) (4, 5, 5,00000000000000000000e-01) (4, 5, 5,00000000000000000000e-01) (4, 5, 5,00000000000000000000e-01) (4, 5, 5,00000000000000000000e-01) (4, 5, 5,00000000000000000000e-01) (4, 5, 5,00000000000000000000e-01) (4, 5, 5,00000000000000000000e-01) (4, 5, 5,00000000000000000000e-01) (4, 5, 5,00000000000000000000e-01) (4, 5, 5,00000000000000000000e-01) (4, 5, 5,00000000000000000000e-01) (4, 5, 5,00000000000000000000e-01) (4, 5, 5,00000000000000000000e-01) (4, 5, 5,00000000000000000000e-01) (4, 5, 5,00000000000000000000e-01) (4, 5, 5,00000000000000000000e-01) (4, 5, 5,00000000000000000000e-01) (4, 5, 5,00000000000000000000e-01) (4, 5, 5,00000000000000000000e-01) (4, 5, 5,00000000000000000000e-01) (4, 5, 5,00000000000000000000e-01) (4, 5, 5,00000000000000000000e-01) (4, 5, 5,00000000000000000000e-01) (4, 5, 5,00000000000000000000e-01) (4, 5, 5,00000000000000000000e-01) (4, 5, 5,00000000000000000000e-01) (4, 5, 5,00000000000000000000e-01) (4, 5, 5,00000000000000000000e-01) (4, 5, 5,00000000000000000000e-01) (0, 5, 0,00000000000000000000e+00) (30, 5, 5,00000000000000000000e-01) (0, 5, 0,00000000000000000000e+00) 
connections (connected_to_neuron, weight)=(0, -9,43145826458930969238e-02) (1, -1,33464887738227844238e-01) (2, 6,19777739048004150391e-01) (3, 6,87109589576721191406e-01) (0, 7,36069977283477783203e-01) (1, -3,71090680360794067383e-01) (2, 2,22896885871887207031e+00) (3, 8,22538733482360839844e-01) (0, 3,21765303611755371094e-01) (1, -3,80055233836174011230e-02) (2, -3,33645194768905639648e-01) (3, -2,31076672673225402832e-01) (0, -9,37574356794357299805e-02) (1, -1,48540779948234558105e-01) (2, 7,97572612762451171875e-01) (3, 5,50761282444000244141e-01) (0, -1,43828713893890380859e+00) (1, 5,42987942695617675781e-01) (2, 4,67916727066040039062e+00) (3, 8,12287926673889160156e-01) (0, 1,08688426017761230469e+00) (1, -3,00856027752161026001e-03) (2, -3,38624387979507446289e-01) (3, -1,81575804948806762695e-01) (0, -2,85890370607376098633e-01) (1, 2,37165167927742004395e-01) (2, 3,59797716140747070312e-01) (3, 5,38059994578361511230e-02) (0, 2,74043846130371093750e+00) (1, 9,07199323177337646484e-01) (2, 6,30087280273437500000e+00) (3, 8,15758228302001953125e-01) (0, -2,06548547744750976562e+00) (1, -1,69511929154396057129e-01) (2, 2,10002064704895019531e+00) (3, -4,81465250253677368164e-01) (0, 1,46787691116333007812e+00) (1, -1,72864496707916259766e-01) (2, 8,71280804276466369629e-02) (3, -8,78335058689117431641e-01) (0, -5,53473548889160156250e+01) (1, -2,11404967308044433594e+00) (2, 1,46942138671875000000e+02) (3, 1,65432727336883544922e+00) (0, -9,24453735351562500000e+00) (1, 1,04988584518432617188e+01) (2, -2,84861812591552734375e+01) (3, 1,26459991931915283203e+00) (0, -1,12958541870117187500e+02) (1, -1,15751278400421142578e+00) (2, 3,41583465576171875000e+02) (3, 7,42023038864135742188e+00) (0, -1,63496029376983642578e+00) (1, 3,69413399696350097656e+00) (2, 5,43790161609649658203e-01) (3, 1,30514049530029296875e+00) (0, 4,92430925369262695312e+00) (1, 4,94575023651123046875e+00) (2, 1,24549522399902343750e+01) (3, 1,26751065254211425781e+00) (0, -5,61220884323120117188e-01) (1, 8,19037795066833496094e-01) (2, 3,38035697937011718750e+01) (3, 6,51143026351928710938e+00) (0, 1,94311022758483886719e+00) (1, 5,88573551177978515625e+00) (2, -7,63281822204589843750e+00) (3, 2,93277770280838012695e-01) (0, 4,58057975769042968750e+01) (1, 5,44315767288208007812e+00) (2, 4,69905509948730468750e+01) (3, -7,12614476680755615234e-01) (0, 1,35165145874023437500e+02) (1, 7,52794623374938964844e-01) (2, 9,72484817504882812500e+01) (3, 1,89233455657958984375e+01) (0, 7,57804751396179199219e-01) (1, -3,41662257909774780273e-01) (2, 2,36527800559997558594e+00) (3, 9,25879776477813720703e-01) (0, 1,06628429889678955078e+00) (1, 1,94958895444869995117e-01) (2, 3,22167682647705078125e+00) (3, 1,74430608749389648438e+00) (0, -1,34961932897567749023e-01) (1, 5,94217516481876373291e-03) (2, -2,04219985008239746094e+00) (3, -2,76792973279953002930e-01) (0, -7,94431257247924804688e+00) (1, -9,78402316570281982422e-01) (2, 6,21139221191406250000e+02) (3, 5,76593208312988281250e+01) (0, -6,63525619506835937500e+01) (1, -2,48880147933959960938e+00) (2, 1,94528869628906250000e+02) (3, 3,20377135276794433594e+00) (0, 1,41276763916015625000e+02) (1, 2,87261080741882324219e+00) (2, -3,32125091552734375000e+02) (3, 1,70450747013092041016e-01) (0, -3,23939108848571777344e+00) (1, 3,71058762073516845703e-01) (2, 5,21121358871459960938e+00) (3, 2,37494349479675292969e+00) (0, 5,82746219635009765625e+00) (1, 9,12534427642822265625e+00) (2, 3,22347373962402343750e+01) (3, -1,31380474567413330078e+00) (0, 6,83223772048950195312e+00) (1, 1,73541049957275390625e+01) (2, -1,69900074005126953125e+01) (3, 2,35390570014715194702e-02) (0, -9,12957340478897094727e-02) (1, -1,18609443306922912598e-01) (2, 6,00621640682220458984e-01) (3, 9,19089853763580322266e-01) (4, 1,03235280513763427734e+00) (5, 1,80003714561462402344e+00) (6, 4,96890735626220703125e+00) (7, 8,12739193439483642578e-01) (8, 1,00038623809814453125e+00) (9, 4,44659805297851562500e+00) (10, 4,33829069137573242188e+00) (11, 1,59815824031829833984e+00) (12, 4,89232969284057617188e+00) (13, 4,06730937957763671875e+00) (14, -2,87905907630920410156e+00) (15, -3,07141512632369995117e-01) (16, -1,40710341930389404297e+00) (17, 8,71918499469757080078e-01) (18, -1,18037211894989013672e+00) (19, -4,94439512491226196289e-01) (20, 1,61157488822937011719e+00) (21, 4,80465292930603027344e-02) (22, 8,64271596074104309082e-02) (23, 1,45983576774597167969e+00) (24, 1,25325238704681396484e+00) (25, 6,78638553619384765625e+00) (26, -1,28290027379989624023e-01) (27, 2,88498091697692871094e+00) (28, -1,32241690158843994141e+00) (29, 1,71868896484375000000e+00) (30, -5,31928777694702148438e-01) (31, -3,60397696495056152344e-01) (32, 1,13140428066253662109e+00) (33, -7,47329831123352050781e-01) 
