FANN_FLO_2.1
num_layers=3
learning_rate=0.700000
connection_rate=1.000000
network_type=0
learning_momentum=0.000000
training_algorithm=2
train_error_function=1
train_stop_function=0
cascade_output_change_fraction=0.010000
quickprop_decay=-0.000100
quickprop_mu=1.750000
rprop_increase_factor=1.200000
rprop_decrease_factor=0.500000
rprop_delta_min=0.000000
rprop_delta_max=50.000000
rprop_delta_zero=0.100000
cascade_output_stagnation_epochs=12
cascade_candidate_change_fraction=0.010000
cascade_candidate_stagnation_epochs=12
cascade_max_out_epochs=150
cascade_min_out_epochs=50
cascade_max_cand_epochs=150
cascade_min_cand_epochs=50
cascade_num_candidate_groups=2
bit_fail_limit=3.49999994039535522461e-01
cascade_candidate_limit=1.00000000000000000000e+03
cascade_weight_multiplier=4.00000005960464477539e-01
cascade_activation_functions_count=10
cascade_activation_functions=3 5 7 8 10 11 14 15 16 17 
cascade_activation_steepnesses_count=4
cascade_activation_steepnesses=2.50000000000000000000e-01 5.00000000000000000000e-01 7.50000000000000000000e-01 1.00000000000000000000e+00 
layer_sizes=3 31 2 
scale_included=0
neurons (num_inputs, activation_function, activation_steepness)=(0, 0, 0.00000000000000000000e+00) (0, 0, 0.00000000000000000000e+00) (0, 0, 0.00000000000000000000e+00) (3, 5, 5.00000000000000000000e-01) (3, 5, 5.00000000000000000000e-01) (3, 5, 5.00000000000000000000e-01) (3, 5, 5.00000000000000000000e-01) (3, 5, 5.00000000000000000000e-01) (3, 5, 5.00000000000000000000e-01) (3, 5, 5.00000000000000000000e-01) (3, 5, 5.00000000000000000000e-01) (3, 5, 5.00000000000000000000e-01) (3, 5, 5.00000000000000000000e-01) (3, 5, 5.00000000000000000000e-01) (3, 5, 5.00000000000000000000e-01) (3, 5, 5.00000000000000000000e-01) (3, 5, 5.00000000000000000000e-01) (3, 5, 5.00000000000000000000e-01) (3, 5, 5.00000000000000000000e-01) (3, 5, 5.00000000000000000000e-01) (3, 5, 5.00000000000000000000e-01) (3, 5, 5.00000000000000000000e-01) (3, 5, 5.00000000000000000000e-01) (3, 5, 5.00000000000000000000e-01) (3, 5, 5.00000000000000000000e-01) (3, 5, 5.00000000000000000000e-01) (3, 5, 5.00000000000000000000e-01) (3, 5, 5.00000000000000000000e-01) (3, 5, 5.00000000000000000000e-01) (3, 5, 5.00000000000000000000e-01) (3, 5, 5.00000000000000000000e-01) (3, 5, 5.00000000000000000000e-01) (3, 5, 5.00000000000000000000e-01) (0, 5, 0.00000000000000000000e+00) (31, 5, 5.00000000000000000000e-01) (0, 5, 0.00000000000000000000e+00) 
connections (connected_to_neuron, weight)=(0, -4.77868765592575073242e-01) (1, 5.04731722176074981689e-02) (2, -5.55550634860992431641e-01) (0, 1.49331653118133544922e+00) (1, -4.69778150320053100586e-01) (2, 1.52530133724212646484e+00) (0, 8.00449311733245849609e-01) (1, -5.34210860729217529297e-01) (2, -2.11082637310028076172e-01) (0, 4.97912483215332031250e+01) (1, -6.66291713714599609375e-01) (2, 1.78549251556396484375e+01) (0, 5.50760126113891601562e+00) (1, 4.66308355331420898438e+00) (2, 2.94354701042175292969e+00) (0, 4.48565930128097534180e-01) (1, 5.10836601257324218750e-01) (2, 2.28495135903358459473e-01) (0, 8.98823142051696777344e-01) (1, -4.02016043663024902344e-01) (2, 6.00534081459045410156e-01) (0, 4.69721460342407226562e+00) (1, 1.91224932670593261719e-01) (2, -9.93109822273254394531e-01) (0, 2.03748971223831176758e-01) (1, 8.58349800109863281250e-01) (2, -2.83615052700042724609e-01) (0, -4.65473890304565429688e+00) (1, 2.22138824462890625000e+01) (2, -8.44559073448181152344e-01) (0, -5.79814195632934570312e-01) (1, 9.49357450008392333984e-02) (2, -5.63275933265686035156e-01) (0, -6.81715011596679687500e-01) (1, 1.74111559987068176270e-01) (2, -4.87418115139007568359e-01) (0, 5.86529254913330078125e-01) (1, 1.61672151088714599609e+00) (2, 2.39456391334533691406e+00) (0, -6.53368651866912841797e-01) (1, 1.28440141677856445312e-01) (2, -4.29730176925659179688e-01) (0, -2.32633876800537109375e+00) (1, 9.32177543640136718750e+00) (2, 3.35356116294860839844e+00) (0, 4.66361433267593383789e-01) (1, 1.19008123874664306641e+00) (2, 2.54194736480712890625e+00) (0, 6.61291480064392089844e-01) (1, 1.81127166748046875000e+00) (2, 1.88201379776000976562e+00) (0, 2.27602028846740722656e+00) (1, -1.11111187934875488281e+00) (2, 1.63582324981689453125e+00) (0, -4.42276597023010253906e-01) (1, 9.45762395858764648438e-02) (2, -5.83479642868041992188e-01) (0, 5.70378065109252929688e-01) (1, 1.55028116703033447266e+00) (2, 2.40520977973937988281e+00) (0, 9.30719316005706787109e-01) (1, 7.52066898345947265625e+00) (2, 2.48129963874816894531e-01) (0, -4.54968661069869995117e-01) (1, 9.01008844375610351562e-02) (2, -5.91989398002624511719e-01) (0, 1.10954070091247558594e+00) (1, -5.01226186752319335938e-01) (2, -3.32906305789947509766e-01) (0, 1.89775669574737548828e+00) (1, -1.97732254862785339355e-01) (2, -3.85247945785522460938e-01) (0, 4.60766613483428955078e-01) (1, 1.17467510700225830078e+00) (2, 2.53774285316467285156e+00) (0, 4.52410399913787841797e-01) (1, 1.00884222984313964844e+00) (2, 1.90696275234222412109e+00) (0, -1.12608848571777343750e+02) (1, -7.47890138626098632812e+00) (2, -1.40277376174926757812e+01) (0, 6.02101385593414306641e-01) (1, -4.07829016447067260742e-01) (2, -2.06268817186355590820e-01) (0, 6.71400725841522216797e-01) (1, -5.72593450546264648438e-01) (2, -2.44266495108604431152e-01) (0, 4.37435865402221679688e-01) (1, 9.04037296772003173828e-01) (2, 1.05571150779724121094e+00) (3, 2.25803017616271972656e+00) (4, 1.06171572208404541016e+00) (5, 9.57680463790893554688e-01) (6, -1.55874595046043395996e-01) (7, -4.28759753704071044922e-01) (8, 3.10410642623901367188e+00) (9, 9.62380111217498779297e-01) (10, -3.80767017602920532227e-01) (11, 7.43329703807830810547e-01) (12, -2.37768948078155517578e-01) (13, 2.45283555984497070312e+00) (14, 2.63087034225463867188e+00) (15, 3.14809769392013549805e-01) (16, 2.86506080627441406250e+00) (17, -5.00455439090728759766e-01) (18, 7.17849582433700561523e-02) (19, 1.22841036319732666016e+00) (20, 1.38411247730255126953e+00) (21, 2.03897333145141601562e+00) (22, 2.25733682513236999512e-01) (23, -5.12989521026611328125e-01) (24, 2.27083659172058105469e+00) (25, 4.67630475759506225586e-01) (26, 5.75168311595916748047e-01) (27, 7.27238804101943969727e-02) (28, 4.76029485464096069336e-01) (29, -1.04890473186969757080e-01) (30, 1.00077831745147705078e+00) (31, 3.21650862693786621094e-01) (32, 2.19877743721008300781e+00) (33, -2.17976346611976623535e-01) 
